1.28290738261
-0.381462465939
-0.281438500099
-0.191031115992
-0.502824798904
0.437234103924
0.0124535398867
0.511200555366
-0.00743225936219
0.802208956811
0.485483119975
-1.26763333032
0.323439193603
0.579206078614
0.195783052319
-0.120937045346
0.0232459702788
-0.588150035988
-0.43412917435
-1.67135758559
0.608383861305
-1.99581776512
0.114937712999
1.15391536597
2.36380080851
0.89613341651
-0.446998147037
0.345094981347
-0.00100105298548
1.26529047989
-1.07132852928
1.48210303485
0.127314206257
-0.148603399638
1.58897111709
-1.78680225747
-1.16707950302
0.396682442849
-0.145248157166
1.05985394353
1.27445034823
2.36713159541
-1.8753625554
0.770061047177
-1.14138601113
-0.437801803987
-1.20202762923
0.84157961758
-0.194328285472
0.0371335675985
-1.4677455916
-2.29874504059
-0.465762618952
-0.134446274807
0.747983380176
0.359817426451
-0.729797029936
0.263995687806
0.0369162539107
0.166839052436
-0.370118333275
1.02846073368
-0.553238126117
1.57228123078
1.55323944605
0.886824974315
-0.861252701755
-1.29028413281
-1.14176369313
0.393844999427
-0.0995368498396
0.557004634843
-0.581756665525
-0.377335746864
-1.4779122171
1.05357786571
-0.117776165907
0.83807208439
1.05541136024
-1.18259452141
-0.369809266578
-0.706419110752
-1.33266405635
-0.907977145646
0.824325564937
0.680063364136
-0.771478722412
0.10978503796
0.491803531685
0.400517072136
-0.465051218793
0.0183364855306
1.5455449238
0.219455115493
1.44769734299
0.54735102327
-0.839242719667
-0.481583160232
0.967460873835
1.74795191599
-0.684355235446
-1.30646216081
-1.04379321673
0.838661097355
-3.1923735877
0.398536580349
-2.47079800647
0.8621849386
-0.257600298183
-1.64130792439
-1.07679661539
1.44593020524
0.618035788731
-1.36709091236
-2.13749643224
-0.195530835493
0.636737245356
-0.83752958547
-0.920580074487
-0.560921536591
1.07005052396
-2.05953028733
0.813412732632
-0.85687173769
-1.32367454961
0.8262897303
0.979281260375
-0.818506947277
-0.369995693737
0.78802505158
1.41170671109
1.34959174268
0.222410158092
0.626303616085
-0.972192488403
0.776566614151
-0.352915304145
0.722684416244
-2.04885580915
-1.07937436403
0.631243113437
-1.26582991806
0.151785309836
-1.11174628671
1.72259775989
0.16380523044
-0.388448493938
-0.905952368125
-0.269683561438
-0.834325273745
-1.21781118204
0.113974928316
-1.42577267481
-0.700311339671
-0.590717770318
-0.487819463883
0.596046764396
-0.697015385342
1.7413173864
0.774425021014
-1.09476043711
-0.895540223553
0.64628945914
-0.187388466845
-1.02942089339
-0.331968512359
-0.515969753977
-0.199182256402
-0.403369158362
-1.61856026469
0.476224309464
0.950934544351
0.207181437182
-0.967309361142
-0.297209101691
0.0328142006995
0.51630464269
0.147760034469
0.386323972616
-2.19454972036
0.0946263847216
-1.29123767131
-1.35077443515
-1.43183507504
-0.847189823195
-0.617333659135
1.05897260358
-1.08861464986
-0.776226708155
0.446504598459
-1.69425371522
-0.693071961611
-0.588305242296
-0.758886075851
-0.778915262086
-1.62940289857
-1.44210772021
0.054854079878
0.280270117562
0.48934639258
-0.645494383574
0.0319306553263
1.11228961702
0.382218211119
-0.540542238127
-0.90569540935
-1.42955149971
0.441479516884
0.592033306425
0.171833849027
-0.401498492902
-1.58324059132
-1.29523207842
-0.758131800033
-1.23458559614
-0.202250499829
1.63329130563
0.80626771238
-0.971836189739
0.642744291967
-1.66435322089
-0.41098117593
-0.07810776931
0.223615423125
-0.425922868696
0.210283410355
-1.23442978386
0.868377576316
-0.714089323238
-1.15962470153
-0.866294954616
-1.16023275358
0.46565073237
0.875288734439
0.0891813883718
0.232964480153
0.06537438234
0.191964656109
1.22303210741
1.37063211801
0.309892727753
-0.551257285738
-0.20372372403
0.452810393214
-1.93138433629
-1.01992529507
2.39221763155
-2.26854199642
0.403937365832
-0.67705019036
-1.05796287823
2.19609918569
-0.209512659798
1.64829226409
0.633614387034
0.772447834076
0.756041850475
1.04684343629
-2.02230623266
1.67710212908
2.54790160383
-0.489464289684
0.438912167946
1.29056055589
2.29536458171
1.61285546991
-0.335541961452
-1.10092256662
-0.37322942309
0.982793888523
0.829670093177
-0.636741432843
1.72075637434
-0.0479317537215
-0.432895183882
1.70275325237
0.520202787722
0.0704840760854
0.869329374796
-0.696457412744
2.33673536074
0.612565244352
0.0784443563102
0.83052801748
-1.1243784302
0.346625162467
1.81545619167
0.907961731153
-0.557604109657
-0.0877958838931
-0.155455864023
0.915434201831
-0.254196942573
-0.127173725924
-2.1462603051
-0.0353725618935
-0.151198646125
0.839320798804
-1.043046749
-1.65417088813
-0.702430650386
0.999737444073
0.108855686478
-0.00273152597732
-0.173466439875
1.45469440521
-0.293669437494
0.21509508915
0.880698871373
1.23915460123
-0.402168517325
0.932220833181
-0.266608569649
1.1122378579
-0.499224751538
2.35581746181
0.641159269712
0.614468884024
-1.1539032434
0.262107616076
0.611115756282
-0.35943267805
-0.233176554311
1.12008122718
-0.250946602116
0.542112740756
-0.171861901065
0.313115245697
-2.08912560174
-0.403926350169
1.72526954015
-0.497331310583
0.29287306266
-0.989213146123
-0.486278213073
-2.49034148322
0.453293924982
-0.470802784569
1.13655671761
0.582450279688
1.49295825264
1.30183845375
-1.48449278523
0.363133208465
-1.65618672077
-0.357773058947
-1.72533025553
0.246948100746
-1.14426020185
0.212667222485
-0.583965059451
-0.110037586461
0.0826120219046
0.3534576936
-0.76562214512
-0.267365669685
-0.785278898013
0.441576774407
0.183193435401
1.40325145003
0.392991844926
-0.263529916926
-1.42870797878
-0.473084712519
-0.144124852485
0.0556484359985
-0.530805546951
1.54450920355
0.429633307503
0.0115498528029
-1.52618696694
-0.309017013709
0.528678390143
-0.00563389952905
-0.0323486878032
-0.791283822821
0.861873824339
0.168751460112
0.474402055924
-1.13529534476
-0.90916445307
0.601763184169
-2.53475658596
-0.784898260192
1.56572030423
-0.484285588093
-1.13118385896
0.207808432264
0.412156013308
3.24634229584
0.638519422716
0.410215290624
-0.521857617222
-0.336880912634
-1.38164681613
0.360044448541
-1.16241774626
-0.219370167265
0.655934532518
0.800339692221
-1.02660273612
0.649458878244
0.305432473445
0.440089562816
0.121565445147
0.531491161809
0.932582091338
-0.555373858942
-0.139400281456
-0.0793578380195
-1.3443511734
0.138074515604
0.753595656581
1.12063506621
0.552096318154
1.00825314231
-1.11112829021
0.277964876875
0.747025902671
0.540681467527
0.640357291353
1.0335882816
0.608959669497
1.04846993033
-1.0965606906
0.633451710273
-0.748753846071
0.167240111943
-0.26290974449
-1.4127229149
1.66542564485
0.744352731777
-0.394632476589
-0.614991184735
0.348700958637
1.43184047755
0.268348642431
-0.105824020277
0.860625256914
-0.882687977457
0.818653197887
0.113023440914
-0.0757414133997
0.204287423793
0.826551443759
0.642537687637
1.34039370755
0.160921384559
1.00466371069
0.0579758645322
-0.558168497879
0.13419489299
0.698129304218
1.20448112199
-0.560067435346
0.621521723957
-0.979116274892
0.00691841297062
0.807816301032
-0.775110075115
0.00564734066368
-0.515097343976
0.724991259738
0.235878430969
1.8895234685
0.189418075329
1.19034627928
0.665684556558
0.475108659904
1.85500275068
-0.768146645526
-0.642832914276
-0.00639239019591
-0.895259243389
-0.405989933262
-0.269464534617
0.833540805688
-3.3075435713
0.493490106203
0.231917864172
-0.0485633650406
-0.229463495593
-2.67201571948
-0.920980967662
-0.291030685862
-1.13516589133
0.943490353513
-0.607885830185
1.48445410585
-0.0379747084764
1.67249314246
1.3260938055
0.0198356349265
-0.846019194377
1.81453587577
-0.83528589882
-1.18778100642
-0.222539150825
0.600480534109
-1.03095512955
-2.33657082468
1.85364392051
1.63885369722
2.64194429883
-0.259364301692
-0.0401185963847
-0.116173576892
-0.372971832254
-0.335221294678
1.47926484966
-1.63715989947
0.397788393552
0.147235451374
0.723386221126
-1.56280571752
0.852099036201
1.1224721285
-1.31812824347
-0.522760493795
0.565804463532
1.69886806256
0.0367645396567
0.981533869868
1.0199107303
-1.25388432287
0.522549766057
0.851284640867
0.0978716356413
-0.612663194993
-0.493716404063
-1.37898549093
-1.11613343271
-0.265316571553
0.043084765541
1.17404681823
0.926512125645
-0.425015575339
-1.04894525115
-1.98871381594
0.406045307851
-1.76876362614
0.582291490114
-1.50373236205
0.971197568406
2.76406563859
0.847149072039
1.59166747767
0.139510635593
0.721837259783
-1.4558084467
1.06502314594
2.27082445146
-0.35788850625
-0.462908068067
-1.43258725517
-0.132720922423
1.00833859806
-0.815862711391
0.962741472008
-0.453802762737
1.05515340167
0.0042016170403
-0.174794734709
-0.251268084677
1.18663761225
1.47471394701
2.14237162605
1.45704390875
-1.24677713151
0.227599278299
1.36027964542
-0.604351047698
0.694594786799
0.308647340057
1.04944731517
0.444052649746
1.54371252191
0.350654437518
2.4557811274
-0.642044486336
0.618562522645
-1.66730978794
2.14248474695
-0.221629422877
-1.12401624467
1.56477996524
-0.520146072557
-0.399211744001
-0.501871599108
0.141026149162
0.994874567187
-0.31089524249
-1.49389468022
-0.91308763125
-0.614512361915
1.51990507235
0.289301953861
0.551843998811
-0.42129409638
2.1794607902
0.270875481761
0.487941839952
2.00440726487
1.303317274
0.718215491289
-1.3629485039
-1.89342791166
0.990206751739
-1.43425326139
-0.716125929885
-1.11877053349
-1.40305654143
0.285059059763
0.555847857261
-0.422159552894
0.637172812548
2.87762603506
-1.33356407223
0.171427574396
-0.237644076746
-1.0087498657
1.41876566815
0.245430341167
0.808252677637
-0.962227604178
-0.0199927393328
-0.679335010476
-3.14345577307
-0.746210856014
-0.343755439119
-0.79219959225
1.93822531923
-0.0387455004458
-0.502938353095
1.44481734117
-0.957154662359
-0.674672366401
1.08617556853
0.217412064315
0.528692589659
0.439518766433
0.374477113207
0.688511022065
0.456907016186
-0.202081495464
-1.32409172311
-0.68190952345
0.302747760737
-1.73972537211
-2.27176742703
1.04214214885
0.813784387299
-0.312423158066
-0.149674639262
0.445180862411
-0.313435840464
0.696050703659
1.23711087706
1.12127573093
1.14799368627
0.920247012369
-0.579869078404
0.163687270413
1.10334524462
-0.177716371676
0.928731258591
0.0627181290492
1.44354188574
0.940045947104
0.663695771388
1.96639888475
0.386502068214
0.262532972667
-1.430827489
1.00772910577
-1.22130371981
-0.564512002584
0.0527939641794
-0.26682475305
1.04588786735
0.445218567933
0.0347461487695
-0.516303070084
-0.72248139915
0.319232867475
-0.759580961229
-1.09072340755
0.979564693718
0.137661303088
-0.827446748247
-0.669637170793
0.634499800612
-0.16696303109
1.49143676552
-0.481944576969
0.237004066294
1.29591066111
0.533221340945
-2.19862115743
-0.761080827223
-1.06590832161
-0.858899041255
0.368800671985
1.40520696271
0.51566935225
-2.25927313959
0.920842731302
-1.61788591095
0.25233320893
0.196181090804
-1.10182920015
-0.108081032422
-0.854754346712
1.9258283384
1.11114559086
-1.22861766073
0.324544697003
1.64304199345
-1.38194659534
-0.565674458739
-2.40744714142
-0.222181165599
-0.634682170356
-2.72344129606
-0.228509799363
-0.141585232881
0.219338526178
-0.988021501196
-0.853465428189
-1.41491534445
-0.749998664494
1.38623965354
-0.37658261674
0.673774464305
-0.767793023078
2.25835152666
1.57863479355
3.84019390702
0.697554470498
1.42413936988
-0.282895674401
-1.82003498783
-0.131951331895
0.776188184658
-0.864998226599
-1.29556868953
-0.521099755272
1.31928948851
-0.502584943656
-0.396515815802
-1.31769158112
0.779558962724
0.238223761454
-1.30731342467
1.51102879077
-1.19318056737
0.449121254879
-0.241555938873
0.0997531751589
0.334900453271
1.07878488151
-0.694637144602
-0.79613110185
-0.748426408775
-0.797761683598
-0.58069046829
1.24660372814
1.32156573953
-0.166217551832
2.6521026091
1.85376386215
-1.09577080377
0.254733627558
1.79740301098
-1.44002622924
-0.182747488096
-1.80609743497
0.971102927019
0.796961726697
-0.54093878291
-1.70948528157
-0.438535821069
-0.658492701316
-1.62110146648
-0.0318475169753
0.255752701736
2.18982260474
1.22210545629
-0.696457988019
0.815310209147
0.566216646797
2.53306777174
-1.58734302869
-0.818674789752
0.730286298436
-0.933872066947
0.930278041118
0.36664747811
0.758135209151
-1.16442244637
-0.85329399965
0.184553245806
0.062172419891
0.17992151005
-0.133888342108
2.31716181183
1.0595161891
-1.19673046292
-0.348649687623
0.206944072423
-0.0275538652251
0.535535141653
0.176392950813
-1.26821548837
-0.431969136077
0.656232563241
1.50151514306
0.881551762604
0.720811349274
0.680037908902
0.170905354392
-0.66334154997
1.73135822365
-0.0506644389292
0.181041092232
0.941616289084
-0.369699833047
1.65067818204
-0.769768300581
1.19412465393
0.92326259931
0.0421459771033
-1.34949830907
0.470164099015
0.28889433132
-1.0488691856
1.70633632861
-1.04303851818
0.150029617217
0.45867128462
0.568630985748
0.355092869487
-1.02160283307
-0.00762314106598
-0.425862527502
0.778311004689
-2.57398827012
-0.927649324502
-0.412142866807
0.358743288829
-1.19294390474
-0.373844873987
0.270366625459
0.854791192851
1.48989559768
-0.92101146312
0.881790793001
0.428604600603
2.0766932114
-0.822143922094
0.193206291652
0.733379932879
-0.738250220786
-0.441445386771
-2.48277102551
0.556968334053
-1.74178630078
-0.594020579285
-0.815313420126
-0.329755039015
-0.831310348953
-1.73591966727
-0.162860369539
2.26955113933
-0.057373453627
-1.20357861598
-1.12336054956
1.10840923111
-1.51855265961
0.525246363025
0.20106132045
-1.36883164192
-1.50699753306
0.323655691944
0.474425262262
1.94014168846
1.57917629005
0.800889082721
0.0497661976813
-0.957649036929
-0.130562216657
-1.46570102755
-0.533112091893
-0.0218403583479
0.419292212544
1.79750564693
0.753806047546
-1.51086335095
-1.54020331486
-0.573070199338
0.525514761129
-0.462639032788
-0.178942503142
0.43944729583
0.303746314182
2.51432453562
1.69273068454
-0.881652981934
-1.00618308821
-0.642488692283
-0.441081459437
-0.752277302359
-1.83387055804
0.397271023026
0.976974392224
1.03132382617
0.0662873062643
-1.44209334901
0.178531382795
-0.768934465552
0.901605605223
-0.0512150922572
0.300653076115
0.383352854443
-1.04389991332
-0.722778004042
1.06694548572
0.469092159419
0.419652486479
-0.573763332548
-0.0926683259237
-0.99213275606
1.65043544197
0.104328275331
0.556943924173
1.05474846497
-0.195797936748
1.20674682191
-0.348877361222
1.20257583287
0.39848500545
-0.427270868057
-0.229666594124
-0.443081167139
-2.2189287679
1.05674619715
0.0295608602839
1.82927210548
-0.43685609208
1.04873563514
-0.371940679418
1.22769089654
-2.09785138647
1.49100105109
0.396582099153
-0.654053712122
1.25528164784
0.71427059992
-1.79254069577
1.26330081745
-2.27870412985
-0.841091863984
-1.08917435756
1.39391619739
0.434664154999
0.395696320249
2.55615164566
-2.49011066579
-0.547758542785
-0.404113537959
-1.68310619921
-0.743690054485
-0.153318070501
0.399200923461
0.855683309461
0.220136612342
-0.300029884812
1.05483052681
0.165009269736
0.549814083278
0.499946736613
0.934119192434
0.790256275831
-0.326876901905
-1.61916302449
1.34685780409
-1.01702695797
0.239163106133
-0.315183527988
0.815146283697
0.00964317949048
-0.506522130927
-2.92541948587
-0.627858116551
1.0021611631
0.488316061801
1.02534963621
0.502610576673
0.466835111215
0.442522133389
-1.02069379035
0.07066468648
-1.20920694011
-0.203932891047
1.28474379444
0.604633709341
-0.193707836507
-0.590455677266
0.900586157594
0.645713275133
-0.96140515486
-1.96755480342
1.12757848701
-1.21410237165
1.22129188026
1.15368036195
0.431588425357
-0.787551642567
0.746726080401
0.397923174529
0.664070336898
-1.97177250468
-0.924295749708
0.326926130696
0.998640685675
-0.0910189284596
-1.43958835335
0.487208887814
-0.363351652518
0.0770677574503
0.719965901984
0.6424065995
-1.03712004763
-0.27038329113
0.121112962832
1.56822568632
0.895683755919
1.4043699257
0.00118016677316
-0.70811427386
0.439238584809
-1.06217088308
-0.173021775091
-1.17670253319
1.19107050405
-0.812243884541
0.724163475658
0.613423684126
0.00433886043411
-0.833200733713
-1.21213883917
0.546082773405
-0.943834764288
0.614140889421
-0.316795102109
-0.227634893833
0.900426920799
-0.421419921624
0.569419373748
1.76146557473
-1.21880204145
0.638738756821
-2.59943260149
-0.469966745314
0.0886316196697
-1.98455611891
0.296755323684
-2.52135030171
0.702766107321
0.438982754401
1.16353173395
-0.224517491728
-1.34640861577
1.29060080467
0.424844162359
1.51010413235
-0.747014791356
-1.56435999503
-0.302065725714
0.0931624813867
-0.472950023208
-0.715680358231
-0.982423082215
-1.61512847646
-0.0721595176965
-0.564532900973
-0.224549766759
-1.41644674554
0.69390815065
0.798140978389
0.754393420899
0.0803305309412
-1.01759495481
-2.99803248912
-0.150105679559
1.75324021732
-1.1360880124
-0.535284988424
0.061075915153
-0.575398710116
1.49934857481
2.33887811392
-0.431506134943
-0.672076656862
-1.71026631864
-0.0462177200122
-1.42725762584
-2.02707323347
0.220273313435
-2.89980920208
1.23451285584
1.00574622437
0.264139191613
-0.898260933179
-0.490911195239
1.57592159936
0.0767135555449
0.326283195683
-0.487898732808
-0.875968635949
1.57380403466
0.744669633996
1.63187258142
0.522107175323
0.700539296373
0.855465766357
0.419358227678
0.848050144602
-1.53536499863
-0.653450137536
-0.869389932585
-0.519355754102
-0.205354473229
-0.0558723733572
-0.991005800648
-0.403196072615
-1.55792614839
0.248360557645
-1.89695400642
-0.463384780428
-0.557886157701
0.241323528039
1.13107923317
-2.19051100494
0.151035057558
0.626204615828
0.281432999405
-0.102855507699
0.818020787291
-0.384266938893
0.694894681296
-0.718782332508
-1.87599933129
-1.68639300534
-1.42964173209
-0.79192274911
-1.00507474559
-0.79344446365
0.526259448017
-0.348348052692
-0.201224483123
-0.44663714379
-1.42758773504
1.40561944418
0.569590697499
-0.444939793878
-0.00816894931749
1.17896981046
1.30777833482
0.399700993927
0.0707710551328
0.838637566983
0.314941248142
1.26287938374
1.16975819387
1.60722856764
-0.180286181723
1.08284636091
-0.497280197129
1.63151708329
2.1070472787
0.753267166075
-1.18386967963
1.01010142857
0.686156857042
0.457997894611
1.6740727963
-0.774510269531
-0.877903268544
2.09051316642
-0.702434405121
-1.50523556369
0.688694063331
0.337869154434
-0.212026939833
0.290588727593
-0.959203933959
-0.504931054628
-0.568119419971
-0.350641094743
-0.714020911033
0.307050670936
0.547112956596
0.663770501372
-1.97998848
-1.35938150479
0.182111201979
-0.646857510207
0.999359348341
0.201134533332
0.350457445216
1.16071023857
-2.67048738894
0.924701481793
0.595825572429
0.149316070327
0.892106912437
-0.311309558663
-0.621190222093
0.66461398315
-0.732220360873
0.136039658695
0.236358237949
-0.0826710556862
1.50087941367
0.276136181365
0.719618109913
1.16994588799
-1.19130784036
0.513415949606
2.05475408138
-0.574403025334
0.852801650491
0.138623241593
1.39140563722
-0.060449135967
-0.0520079226842
1.06988812031
-0.774576741391
0.270901103187
0.134244171667
-0.00520457481073
0.910636129456
-0.412974715204
1.1767628217
-0.986337639966
0.15425508008
0.755047169981
-0.855755079246
-0.694761955479
-0.834823018134
1.83631791849
-0.180460481673
2.10536132736
2.68169734992
-0.739503596958
0.0470685882654
1.72176202524
-0.346127628625
0.388873934457
-1.5101110134
-1.06708973329
1.70629850338
-0.206066657538
2.16411273621
-0.543470813827
0.186685434632
-0.91317803719
-0.629499500891
-0.211201203486
0.558299674282
1.09160984311
0.798538763146
0.246892667282
-1.1210291876
0.733092964625
-0.062477936421
0.216468270192
-1.18575383754
0.898156243997
0.99414503446
-0.569044511317
-0.0952380357553
1.43836253472
-1.12031864606
1.12664997309
0.982214935197
-2.99773762737
0.129672971845
1.62611557447
0.29887023791
-1.26694938333
-1.43310482526
0.772400421014
-0.483859124433
0.00411347059904
-1.01034522483
-0.158789182144
-0.451833667866
-1.19810152819
0.299514641465
-0.469661936624
-1.59252505439
-1.74478446571
1.42084910434
-0.110496215722
1.35160474391
1.25295609857
-0.446192847377
-0.383521186376
-0.964967848207
0.19765230985
0.939370384406
-0.00760367059504
0.297807834478
1.52381316588
-0.871075810001
-0.473649737792
-1.48981481427
1.89476018183
1.00642002649
-1.80982166588
-0.980700870076
-0.156203447049
1.12866840521
-0.25535924776
1.32433680701
0.0467145763971
1.1048931307
-0.00386515083297
0.949786205823
0.22573809425
1.26611004868
-0.655446105372
0.0897197086243
2.36297493802
0.802677136914
1.79399514328
0.758807488042
0.0991160075478
2.28843378401
-0.509334971462
0.926365029347
0.981855473969
0.364428950125
-0.551009973238
1.20100396802
0.96529895879
1.34728555241
0.49695580303
-0.550279169633
-1.06249692071
0.376690518221
-0.187488462461
1.8648994429
0.772535531737
-0.852206328745
0.893274964999
-1.80348149807
0.49257467798
0.676406191933
-0.197968636754
-1.16115744103
1.73628962391
0.893935247837
0.230542793791
-0.484130777937
1.0720836421
0.467607515018
0.0690838192085
2.15918078385
-0.636847573772
-0.949571753952
-1.64498004822
0.142505169646
-1.02786300702
-0.847463396981
-0.869195049737
-0.189900680357
-0.415983012655
-0.152202235013
-0.236766908529
-1.30705174118
1.09182480796
-0.155735017951
1.32953842793
-1.16147551147
0.937223278704
0.72110042791
-0.611621468714
-1.85533986641
-1.09054494173
-1.181398077
1.13198723825
1.86761522207
1.40674234276
-0.485664592338
0.525553322068
0.358607084504
2.60948323978
-1.70746223029
-1.36238334835
-1.13664619335
0.546487121251
1.75289765127
-1.10055048579
0.905338274921
-1.01734577908
-0.506906457549
0.540529540715
-0.829693406251
-1.48022612833
0.349100840919
0.774033194601
0.370320617302
1.60504696308
0.771511033509
0.144102290986
0.587211685285
0.0697656628753
0.212293412116
0.274592765394
-1.48928479904
-0.310044413684
-1.03500440527
1.31348469896
0.906244614274
2.01508741134
-0.774917697325
1.28111804602
0.797203349106
0.555542105525
-1.72902217913
1.41647820212
-0.643750734917
-0.117813041913
0.783357805525
-0.13619931025
1.13014347933
-1.73875128453
-0.447577947175
0.343035651489
0.387491632656
-0.473440462119
0.963359416029
-0.0466711660387
0.11936959277
0.612793368601
0.47598011891
0.375104246342
-0.210815707472
-0.258056662171
0.0547451565946
-1.21233681794
-1.17207574281
0.202247545627
-0.476813122224
-0.407918127399
-0.537939019813
0.113996780714
-0.430658493738
0.267898860841
1.1547567438
-0.114645906724
0.144737534779
2.43441205589
0.269009548245
-0.483307230531
-0.658281882207
-0.313546012404
-0.434733732844
1.45613549303
-0.049595621376
0.509963824627
1.7764079932
-0.499626402278
-0.186569968367
-0.251586194292
0.522711341632
0.378734002172
-0.992226495147
-1.26581007544
-1.13564693031
1.1406287854
0.553689197306
-0.655345015318
-0.464682130017
0.238753889725
2.51431430621
-0.627967526913
1.11395575139
0.816938959466
0.477946522732
-0.273358622952
0.98085430296
-1.20519949687
-0.73083021295
0.15342512629
1.69904791341
0.865654923007
0.274471398611
-1.33829114746
-0.559300373454
0.49930444076
-0.46369095627
0.883564207965
0.382456078782
1.40325105743
-1.03277427781
1.36715886725
-0.106378003332
0.565495298054
-0.980705737685
0.391317441281
-0.706278088695
-0.720714874263
-0.390266265244
0.272973774643
0.622213019705
-1.30530019066
0.216348681288
0.198442702939
-0.234521619537
0.961289258006
-0.635601437106
1.31109958962
0.669861517267
-0.547826699944
0.623707248148
1.05627698843
-0.645517050691
0.940289039936
0.412442261558
1.30190454715
-1.45300675726
-0.340583338498
-0.788239596896
-0.301153936536
0.423982986821
0.450826075288
-0.19680216106
-0.0952040799291
-0.276020841409
-0.757305774931
0.347883746061
-1.16036212561
-0.00600539245125
0.184964886558
-0.951052797711
-0.0230403173091
1.05831453262
0.0489922222999
-1.18105900039
1.02643823511
0.831809770826
0.783961493146
-0.818870738018
0.657323472741
0.0805582493507
0.0796324556794
0.75860170304
0.637525587631
-0.00942168392506
0.855269640292
0.255483285552
-1.58850929709
0.22207398037
-0.826129782886
0.355962296083
0.870314439457
0.365840996967
0.979737844699
-0.80535316576
1.3700152611
-1.00772344244
0.376970797187
-0.663451377931
1.00740445654
-1.32972132903
-0.32601649285
-1.53178999718
-0.445884923035
-0.336685423925
0.0889147831876
0.194385592173
0.389116086424
-0.998205644707
0.38457777518
0.103229331513
0.244108207687
-0.492685826089
0.477713393324
1.09182349443
0.536249873022
0.0743204789662
-0.25051758984
-0.232855082721
0.164174174997
-0.00526423255334
0.813895955909
0.81066519658
1.68725435663
1.31103571357
0.269030762943
0.57725487181
0.673366806374
-0.311394370827
-1.53050023552
0.173831364261
-0.805776866078
-0.161253358189
-1.45407336759
0.02191771421
-0.960184945004
-0.614392556529
-0.954599504727
0.145132861128
0.807366370781
0.408332501858
0.669927305326
-1.32817172658
0.895330758223
-1.14649898091
-0.423430361693
0.0162505803103
0.540380555968
-0.706973120633
0.494840802995
0.69064302129
-1.00898295606
-1.67881707784
0.473554042339
-0.31339272772
0.704047115754
-0.426200774928
0.225716288313
0.466925639322
1.77894750603
-1.61842138823
-2.40753549575
0.227025526129
1.31491564372
0.0487733879921
0.456616613855
1.4661858605
0.778864252482
-0.337817348933
1.34082551199
-0.0705991629214
-1.15076199027
0.130641887733
1.47751929241
-0.351394655508
1.14605961158
0.779163799031
-0.576795193766
-0.023853235678
-0.216219129391
0.515274259046
-0.141643717401
-0.501606998856
-0.506497148321
0.599910544918
1.25205155872
-0.547454673307
-0.65051315908
0.629860103437
-2.11471997219
0.0451107375676
-0.162154947854
0.00345695561326
-0.0380583439109
-2.4604924205
0.230410900749
0.26459390218
-0.27828791173
-1.13291145025
-0.387331796278
0.87086186425
-0.314143334707
-1.04732832823
-0.318637793877
0.419408846903
1.22590232085
0.636330510069
0.811489477038
0.0339031203655
1.62174768834
1.24589644811
1.03283822261
-0.314078016499
0.410764556011
0.785558754328
1.50867695212
-0.188990128902
0.113233958825
0.220291088936
-0.239506840235
-0.162576679749
1.09413582931
-0.632455240028
0.653369275607
-0.825232884175
0.0583602782936
-0.758042799467
-0.919826717048
1.78499074458
0.0929603344707
0.163636910913
-0.504531509128
0.849749791904
0.240042401394
-1.11184137197
-1.72081428685
0.999487463598
0.394913648085
-0.722184887732
-0.586152613797
0.461224655096
-0.53303220119
-1.01662100143
-0.253538711888
0.15022264588
-0.121446634058
0.0381827595651
-1.41819918414
-0.27922196624
0.998271513573
0.802595075307
0.523592810924
-0.464816837815
0.797421089532
-1.84610200062
0.424816770153
-1.71895365868
1.36364282368
1.75829008786
0.23776457939
-0.323057777921
-0.738812982254
0.800634141188
-0.500743162092
0.437482057685
-0.656326918511
-1.24355179596
-0.0542024338234
-0.569391985666
0.766649202375
1.812660278
0.272710370494
-1.83683916252
-0.697510812409
-1.00350503268
1.60424880092
-0.506107044173
-0.272623482387
-0.627737726257
1.31781513528
0.941394798213
1.56106505199
-0.599417283516
0.0869654831028
-0.911727427789
-0.997456986658
0.300858912046
-1.23403838755
0.968510367769
-0.57857669321
1.28422942358
-0.261072984119
0.448433817754
1.01955113039
-0.898976002755
1.21882520106
-0.00341669460843
0.298670161785
-1.04110663694
0.0398121121314
-0.332142301406
-0.34987945926
-0.224987087793
1.5909076412
0.112983971063
1.64768943584
0.424941175819
1.77403100792
0.026439992623
-0.610596623353
-0.205951609154
-0.916922211604
-0.364382163929
1.04156571854
-0.261830168766
0.463043344394
-0.241434852369
0.761250487641
-0.732708807738
0.391583979476
-0.58788509761
0.0156713880708
0.356092682773
-0.800156063774
0.0813789548757
-0.652194957976
0.785822923769
-1.69574649412
0.194259408711
-1.54472143892
-0.783463962119
-0.0753793390738
-0.181993669393
-1.43458766991
-0.603165274215
0.098226551308
-0.316682183894
-0.58747782631
0.16264394084
0.849012048487
0.358401875501
0.0482349285888
-0.150544134882
0.859678112837
1.45229741448
-0.942740345227
0.652258598107
2.15483304415
0.438857829533
0.531490658202
0.847097659399
0.0904694625376
-0.100802815854
1.02878764502
-1.07715609299
-0.928906084785
0.268053347816
-1.6715981278
-0.285857907166
0.943197377862
-0.380877767038
0.0478209053245
-0.731480191729
-0.741385373412
0.968053163097
0.520834218287
-0.997048116899
0.0334882097878
-0.569758440677
0.123204685591
-0.635170619841
-0.192361203898
0.365154938308
0.24683258307
2.21450745048
0.03976225329
0.783792791242
0.273220312275
1.08651296183
0.361343351672
0.26525252186
0.559826463957
1.26935892153
-0.201886216794
-0.47015653092
1.40670625591
-0.0170867330747
0.580050882033
0.334266722485
-0.45500966778
0.164565159402
-0.322004605337
-1.16889558856
0.966547482329
-0.555173895736
0.905975664155
-0.134557250821
0.931090417269
0.286484056433
0.422631260641
-1.65551060279
1.09159256003
-0.560912716272
0.103810499252
0.517356117035
0.33178567707
0.417888804641
0.720039006531
-0.0533686761254
0.160523770458
-0.829700884825
0.685205249815
0.0598900611272
1.42317096493
-0.558988395528
-1.53315458635
-0.67839425569
-0.926824902055
-0.372759711025
-0.868204386675
-0.94622478241
-0.473058824387
0.332960471847
0.120563226779
0.246359779734
-0.164962131754
0.72115655138
0.232200077486
-0.862763623179
-1.04965069287
-0.183519677307
0.161737659384
-0.903975569124
-0.0211804497896
-1.69436129401
0.0842512493193
-0.00474928909448
0.21213977265
-0.196123870165
-0.549656964506
0.693625223303
0.492435059502
0.0837396731833
-0.339294395607
-3.12451940929
-1.40793845623
0.332538205179
-0.105939747542
-0.398696315923
0.354555843988
0.824724600363
-0.153335767993
-0.359365372218
1.70303314264
-2.46690052372
-0.738307523437
0.938667928313
-0.412809779898
0.959935732812
0.664543330212
-0.600172935668
-1.09480017146
0.246084701435
-0.153972357113
2.21990147167
-1.27966752987
0.724019259067
0.737879014498
-0.229547128092
-1.16955577829
1.31288349405
0.847807012215
-1.15219410423
-1.02988979252
-0.308497170375
-2.04554259653
1.38392627647
-0.719143234386
1.16801184651
-1.11535551736
0.112731033682
-0.274309931051
-0.145731985415
1.15327764314
-0.0253325470658
0.232601821659
-0.0124991587549
-0.765793330429
0.190547253692
0.399992788017
0.107695579775
0.457839612079
0.0574008074474
-0.200594071967
1.79831196756
0.215389511867
0.174370257807
-0.213904548659
-0.365044727063
0.471836015052
-0.313705497452
-0.659339683091
1.14903148129
1.41081032856
0.662244272725
-0.544966943869
0.196540484805
-2.20901953554
-0.173649434161
-0.333770102852
-1.21838117003
-1.43021909702
0.327635626753
-0.261800326867
-2.72831546286
-0.1644342648
0.0144675489143
0.0794216402892
-0.557867655458
0.178226694725
-0.128745100961
0.731549735177
-0.160004314892
-0.541729970006
-2.15030842221
0.0969302603382
-0.0289856076472
-0.0990608728861
0.344471316996
-0.895166709324
-0.0805133610358
-0.916521521151
0.551211970317
-0.38757361841
-0.112970805333
-0.668841898084
0.213005315187
-0.662840955319
1.22119810404
-0.577802478668
0.400976438244
0.740144255265
1.17741117101
-0.735784969647
-0.054748044923
-1.06770740108
-0.266548581531
0.806677650575
0.0437603785621
0.306487782867
0.117696341686
0.249599547267
-0.99135259448
1.00517697547
-1.75266310415
-0.49465868784
1.10986052868
-1.26170621906
0.0177195550965
-0.23581985675
1.40189439121
0.316782574708
-0.172004648634
-0.170612042232
-0.0345757864232
-0.0145948359238
-0.0188203788389
0.0998708685517
-0.219548032835
-0.0684518904596
-0.0861127400322
1.2630405969
0.143137182803
-0.558388791159
0.0493611436113
-0.11354089797
-0.18228820903
0.0272258593259
0.0862148902898
-0.0414182926429
-0.146495019664
0.0583377100259
